From input layer through hidden layer:
[[ 7.23145579e-02  2.16646726e-01  7.41951883e-01  9.86135047e-01
  -7.17846161e-01 -8.99000845e-01  7.57532722e-01  4.80215018e-01
   8.58672593e-01  7.31549505e-01 -8.77828542e-01  1.81793032e-01
   9.70959541e-01  9.14369222e-01 -4.98517657e-01 -1.42789576e-01
   4.62896884e-01 -9.94898663e-01 -7.13570269e-01  1.27979636e-01
  -3.29390038e-01 -9.20668286e-01  2.54236667e-01 -8.43185187e-01
  -6.16073742e-01 -1.40172165e-03  6.41636244e-01  9.30455573e-01
  -7.78811936e-01 -7.95489631e-01 -4.10167646e-01 -8.51666454e-01
   6.43147834e-01 -7.88394588e-01 -4.29123269e-01 -7.55619396e-01
  -4.07309448e-01  7.47566059e-01  8.15148538e-01  7.25588051e-02
   8.42962819e-01  3.54317606e-01  8.40416475e-01  9.47139397e-01
   9.93931192e-01  7.68734223e-03 -3.84954768e-01  5.70637622e-01
   9.09658823e-02  1.19582728e-02  9.89684120e-01  5.93974649e-01
   3.39062454e-01 -4.06977521e-01  2.76808181e-01 -8.40342739e-01
  -2.03067494e-01  4.59249095e-01 -8.69134710e-01 -8.21032245e-01
  -8.32970839e-01  6.96815858e-01 -8.09869082e-01 -3.41373963e-01]
 [-2.20814493e-01 -8.87336625e-01  1.40070788e-01 -5.03268518e-01
  -8.00969499e-01  2.81597109e-01 -2.28525692e-01  2.20399956e-01
   6.20095579e-01  5.10093470e-01  7.76740650e-01 -7.12068193e-01
  -2.02511130e-01  7.87079303e-01  3.18100880e-01  4.67701001e-01
   1.76670384e-01 -5.33258416e-01  4.47741573e-01 -9.07260843e-01
   6.71568256e-01  8.09613281e-01  3.30870715e-01 -5.22752748e-01
  -3.31583701e-02  9.67184528e-01 -7.97829435e-01 -3.51803562e-01
  -4.17490729e-01 -4.87432836e-01  4.20224438e-02 -8.56209064e-01
  -7.84965609e-01 -3.59094680e-01  6.07503477e-02 -4.34044305e-01
  -3.28354914e-01  9.21754422e-01  2.86583406e-02  2.26063010e-01
  -9.01776556e-01  1.22670496e-01  2.53047644e-01  4.85310292e-01
   9.76147921e-01  7.41483883e-02 -2.91211755e-01  6.54317618e-01
   5.09938762e-01  4.94037937e-01 -3.08540289e-01 -1.32655770e-01
  -8.37288034e-01  2.44677655e-02  4.48082736e-01  3.06282708e-01
  -2.26243475e-01 -8.85170916e-01 -1.32737435e-01 -4.27548829e-01
  -1.77740261e-01  1.35411572e-01 -6.65038246e-01  2.16799427e-02]
 [ 5.03644104e-01 -1.74609094e-01 -7.31731489e-01 -1.83852081e-01
  -5.25825957e-01 -4.62724263e-01 -4.87865262e-01 -4.50680561e-01
  -1.66991678e-01 -6.22778447e-01  7.38159316e-02 -8.12259108e-01
  -9.18977436e-01 -9.94341147e-01 -3.67420715e-01  4.18247142e-01
  -8.17277344e-01  9.21524964e-01 -9.63182212e-01 -9.51128939e-01
  -6.42804639e-01 -7.30799542e-01 -4.97337889e-02 -4.32836589e-01
  -9.94551725e-01 -3.90807383e-01 -4.47974799e-01  8.74732902e-01
   4.07471792e-01 -6.84501087e-01 -5.80473789e-02  3.55299909e-01
  -5.83148423e-01  6.41281958e-01 -2.09580258e-02 -1.99628156e-02
  -9.53445683e-01 -4.76861810e-01  6.09347872e-01 -8.90862870e-01
  -3.95296729e-01  9.89074368e-01 -5.19627500e-01  2.02866403e-01
  -8.76896713e-01 -9.71419877e-01 -5.55217317e-01  5.86553468e-01
  -7.29837032e-01  4.02169381e-01 -7.68411714e-01 -7.76084207e-02
  -8.67970803e-02  1.72129017e-01  7.23236995e-01  8.53559152e-01
  -1.09583829e-01 -2.81631422e-01 -2.34021251e-01  7.00516144e-01
   4.77748736e-01 -7.76746498e-01 -7.08267415e-02  7.66146048e-01]
 [-9.60278168e-01  6.56945205e-01 -8.13451360e-01 -7.19920966e-01
   7.48534208e-01 -4.17025062e-01 -8.11017816e-01 -8.72635013e-01
   8.54040291e-01 -4.68422163e-01  9.34600798e-01  2.69055641e-01
   1.70012460e-01 -7.47644685e-01 -3.23196380e-01 -8.65192425e-01
   2.48113709e-01  7.27214448e-01 -5.90091216e-01 -9.94418331e-01
  -7.81002372e-01  5.74707748e-01 -6.24365097e-03 -4.26089781e-01
   7.38888307e-01 -4.73916442e-01  9.73937395e-01  2.43834567e-01
  -3.30442380e-01 -6.66502469e-01 -7.83158158e-01 -5.94856766e-01
  -5.12098660e-01  4.47859524e-01  4.67993236e-01 -8.06432874e-01
  -2.51041431e-01 -1.09669543e-02 -9.15677244e-01  9.15266831e-01
  -3.02420881e-01 -6.06530013e-01  3.06775091e-01 -5.34167438e-01
   6.20220387e-01  5.87675844e-01 -4.52727703e-02 -2.01892119e-01
  -9.82156833e-01  2.61658370e-01  1.14026331e-02  2.92271501e-02
   5.30522075e-02  5.34531245e-01  3.47899449e-01 -8.35491204e-01
  -4.81669336e-01 -8.57118460e-01 -4.62671037e-01 -6.57728446e-01
   9.38956958e-01 -1.80210423e-01  8.08171961e-01 -2.72319538e-01]
 [-2.15962802e-01 -8.19769599e-01  9.67054743e-01 -8.42716378e-01
   3.93464501e-01 -1.44034599e-01  5.87787936e-01 -2.35734209e-01
  -3.95847758e-01  6.82756285e-01  2.18187588e-01  6.02544579e-01
  -9.95050719e-02 -7.95206396e-01 -7.25785613e-01 -7.30440936e-02
   2.86745261e-01  8.96698561e-01 -2.87676520e-01 -8.14308304e-01
  -8.11567967e-02 -7.81915564e-01  7.87397569e-01  9.51233848e-01
  -5.83751998e-01 -7.42689937e-01 -6.57246560e-01  6.86957435e-02
   3.19698798e-01  5.68743484e-01  9.45640951e-01 -3.32962585e-01
   4.64751164e-01 -9.13927676e-01  7.56875249e-01  3.31909697e-01
   2.49949446e-01 -5.64170404e-01 -6.29717086e-01 -3.19155099e-01
   9.06907289e-01 -4.03085009e-01  4.82022084e-02  8.06824609e-01
   1.94186349e-01  4.20765021e-01 -4.96134374e-01  8.77595730e-01
  -8.33507924e-01 -3.93573740e-01  5.78854370e-01 -8.13224633e-01
   5.07505330e-01  9.32282942e-01  5.77658026e-01  8.72782652e-01
  -9.64313076e-02  4.51437709e-01  5.21445382e-02  1.17580991e-01
  -8.73507059e-01 -6.94607721e-01  8.14065345e-01  8.17757670e-01]
 [-3.40496254e-01 -8.16860236e-01  2.91275882e-02  9.57620549e-01
  -4.59773011e-01 -3.08928190e-01  1.34090415e-01 -1.38369985e-01
  -6.63642728e-01 -5.16176493e-02  7.37375871e-01 -8.14167148e-01
  -4.88078409e-01 -1.85724062e-01  9.54070158e-01 -8.74984424e-01
   3.56214034e-01  8.34974668e-02  7.40724551e-01 -7.05940722e-01
  -1.75750845e-01  4.38596622e-03 -8.12901481e-01  5.74827816e-01
   4.62907517e-01  3.45936097e-01  1.18554728e-01 -7.90442117e-01
  -6.05192669e-01 -6.56299364e-01 -6.03171619e-02  5.97726790e-01
   7.70428198e-02 -9.14264355e-01 -7.35766506e-01  6.48618122e-01
  -6.13646876e-01  6.17147288e-02  8.45500294e-01  6.78550973e-01
  -7.14666272e-01  1.95192551e-01 -9.15244959e-01  7.73970689e-01
   1.98145321e-01 -8.52194252e-01  7.36803131e-02  1.27774370e-02
  -5.86406669e-01 -7.71157633e-01  4.77995315e-01  4.34790395e-01
  -7.29563780e-01 -4.58128231e-01 -1.89361369e-01  2.24753739e-02
   4.57078424e-01  9.47830910e-01  8.45755541e-01 -5.04516013e-01
   5.10619024e-01 -2.56811009e-01  4.40712555e-01  6.95026426e-01]
 [-8.22154403e-02  6.70614019e-01 -1.85227753e-01  7.32280437e-02
  -2.80156199e-01  1.27661271e-01 -6.98022291e-01  2.55318429e-01
   8.87252879e-01  4.10626767e-01  8.83789286e-02 -7.66554818e-02
  -4.29976592e-01 -2.79454265e-01  5.08463243e-01  6.29961316e-01
   3.37840913e-01  6.09690240e-01 -7.59478757e-01 -1.61413306e-01
  -1.03128524e-02 -3.96508138e-01 -7.89158922e-01 -9.69108337e-01
  -2.80904859e-01  1.04713161e-01 -6.99097432e-01  1.68533639e-02
  -6.62993319e-01  5.84894728e-01  3.64582314e-01  2.01579200e-01
  -3.89889018e-01 -5.33261961e-01  9.00264213e-01 -5.22288592e-01
  -9.73925227e-02 -1.02849393e-01 -6.47928289e-01 -7.27965382e-02
   7.54707234e-01  3.37537308e-01  1.29500320e-01  9.65475639e-01
  -4.17565360e-01  3.75620331e-01  2.07080027e-01 -9.27996459e-01
   6.28145350e-01 -1.75252183e-01 -6.05598273e-01 -9.47201732e-02
   5.84154624e-01 -5.18325069e-01 -5.40213060e-03  3.89227780e-01
   1.95951025e-02 -8.22362552e-01  5.06090883e-01 -2.33886181e-01
   8.27486315e-02  2.68264233e-03  8.43313682e-01 -8.52538838e-01]
 [ 8.64535063e-01 -4.08822578e-01 -9.69330840e-01 -3.61752632e-01
   8.42346709e-01 -6.75793433e-02  2.39693092e-01  3.27113431e-01
  -5.54945633e-01  4.06464163e-01 -1.41545539e-01 -4.29833169e-01
  -8.83123012e-01  3.16053930e-01 -9.35448671e-01  6.30291159e-01
  -6.06520934e-02  2.40835880e-01 -2.05317955e-01 -5.05506366e-01
  -2.24630958e-01  4.36496768e-01  3.65416764e-01 -3.02669319e-01
  -5.90309275e-02  1.78069510e-02  7.00004648e-01  7.15517576e-01
   3.22101833e-01  3.82698483e-01 -8.29015851e-01 -9.26541495e-01
  -7.62640681e-01  4.92459631e-01  5.36297637e-01 -7.18215635e-01
  -9.57160655e-01  4.31426032e-01  9.51400353e-01  4.19912941e-01
   6.59681817e-01  5.63961796e-01 -5.48386633e-01 -6.66836763e-01
   7.95695920e-01 -9.15767051e-01  8.55295011e-01  8.86183097e-02
   3.38633467e-01  1.04794427e-01 -1.89858178e-02 -2.70945238e-01
  -7.84588141e-01  4.73098322e-01 -2.68425948e-03  9.59053899e-01
   5.98357723e-01 -8.71535578e-01  9.54781850e-02 -2.97843313e-02
  -7.37685626e-01  3.41437678e-01 -6.60044573e-01  4.84400601e-01]
 [ 7.13407596e-01  1.21084049e-01 -9.49275035e-01 -6.48569021e-05
   2.74086030e-01 -1.66047314e-01 -3.37383318e-01 -6.30900030e-02
   1.89839914e-01  6.30643098e-01 -7.79447725e-01 -9.25515713e-01
  -6.77204111e-01 -3.56348176e-01  1.13160919e-02 -2.18487492e-01
  -3.46141157e-01 -5.59067925e-01  2.39823139e-01 -8.79208952e-01
  -1.91571231e-02  1.59614172e-01 -2.92769759e-01 -7.17976294e-01
   7.93864912e-01 -7.13469320e-01 -5.05721830e-01  2.15123671e-02
  -5.64053687e-01 -8.85575213e-02  2.45684752e-01  7.23048605e-01
   4.11176394e-01  4.30790674e-02 -9.25574972e-01  5.53193709e-01
  -5.44500141e-01 -1.26424489e-01 -9.74127324e-01 -4.00522573e-01
  -9.52458611e-01 -4.89792163e-01  3.87856123e-01 -5.42984388e-01
  -8.29236655e-01  8.23281283e-01 -4.42328354e-01 -3.04130895e-01
   4.46989989e-01  2.89338451e-01  6.60986559e-01 -2.82056033e-01
  -5.59031298e-04  9.79838983e-01  6.92044732e-01 -9.26327159e-01
  -3.73745963e-01 -1.09472945e-01 -7.17935095e-01  8.82254494e-01
  -1.42941412e-01  1.28534438e-01 -6.85675783e-01  2.10786789e-01]
 [-5.55365917e-03  6.82338603e-01  2.36506639e-01 -5.66006086e-01
   4.46805235e-01 -7.64678792e-01  7.77793550e-02 -9.54188226e-01
  -9.26746696e-01 -6.23068268e-01 -9.56512884e-01 -1.71207032e-01
  -9.87112072e-01 -5.34999075e-01  4.86255853e-01  4.09428450e-01
   2.09235606e-01 -4.40979266e-01 -7.30014791e-01 -2.59769532e-01
  -1.40962230e-01  6.03997949e-01  1.68667546e-01 -7.16282370e-01
   2.85975804e-01 -2.83544932e-01  5.54935100e-01  4.52001031e-01
   7.06672430e-01 -4.79216744e-01 -9.24795469e-01 -7.74616390e-01
  -4.86660289e-01 -1.98412673e-01 -6.73176228e-01  7.08007201e-01
  -9.03413874e-02 -8.29655278e-01  4.37427788e-01  6.97156812e-02
  -3.70175318e-01  7.40728939e-01  1.43643190e-01  6.73406169e-01
   1.52094714e-02  4.92915723e-01 -6.47299714e-01  9.29710873e-01
   3.14700455e-02 -8.47948408e-01 -5.46447340e-01  6.12840146e-02
  -3.38223989e-01  5.24853329e-01 -5.67462458e-01  7.49893721e-01
  -7.36954404e-01 -9.34874575e-02  7.71402878e-01  3.57412360e-01
   7.31109361e-02 -1.04095253e-01  3.28154741e-02  1.53517254e-01]
 [ 3.43681891e-01  2.91186502e-01 -9.20762206e-02  4.59310604e-02
   6.84678056e-01  5.55996952e-01  5.46316327e-02 -4.35298751e-01
  -7.01122353e-02  2.65656395e-01 -7.44352261e-01 -8.19751356e-01
   8.35554458e-01  6.58105247e-01 -5.05250306e-01 -6.87771299e-01
  -9.92522407e-01 -5.38598969e-01 -9.92064156e-01 -3.07877015e-01
   5.23694117e-01  3.79265844e-01  9.69425559e-01 -1.52664417e-01
  -6.28400062e-01 -3.29787835e-01  6.73152082e-01 -1.52217204e-01
  -5.26346943e-01 -9.71439601e-01 -6.29741099e-01  1.63441579e-01
  -6.32339767e-01  6.00946811e-01 -3.35820768e-01  9.57704447e-01
   5.66055918e-02  5.02709380e-01  5.65983046e-02  7.88840049e-01
   4.21138694e-01  5.46579188e-01 -3.50221547e-01 -2.86473979e-01
  -5.91385626e-01  2.01565274e-01 -3.98519126e-01 -9.14677711e-01
  -7.27107425e-01  8.22538520e-01 -9.79973786e-01 -4.27911946e-01
   7.50815562e-01 -3.74524622e-01  5.04363569e-02 -6.60941397e-01
  -5.35897232e-01 -2.36838637e-01  7.41706823e-01  4.37921908e-01
  -5.33925559e-01 -6.87239007e-01 -9.27586663e-01 -1.70202756e-01]
 [-7.87325703e-01  3.72309445e-01  6.03694695e-01  2.39268127e-02
  -1.22029302e-01 -8.41197234e-01  9.69274603e-01  2.90198887e-01
  -3.69806355e-01  6.38323399e-01 -9.10041681e-01 -1.73434738e-01
  -6.38644158e-01  5.94009036e-01  7.72417462e-01  5.81100874e-01
   2.97599903e-01  8.00667708e-02 -6.53672511e-01  7.17693020e-01
   4.33647069e-01  5.54990842e-01 -7.38044337e-01  3.46430937e-01
  -3.27295895e-01  2.35331191e-01  9.84372230e-01 -7.19211663e-01
  -6.59134751e-01  2.98874617e-01  6.02373034e-01 -6.77344389e-02
  -2.73248400e-01  9.82464888e-01  8.66821660e-01 -6.05196890e-01
  -6.61115377e-02 -1.53776789e-01  3.63479149e-01 -3.57081862e-01
   3.51348649e-01 -3.73686481e-01  9.29688413e-01  5.21812883e-01
   6.82614429e-01  5.91259436e-01 -8.80472505e-01  9.54940909e-01
  -9.09791535e-01 -3.37675987e-01  3.91335333e-01  6.59451035e-01
  -9.79294885e-01  9.35911459e-01 -7.30367643e-01  2.96208207e-01
   1.97518832e-01 -3.80410118e-01  4.55096790e-01 -5.52464655e-01
   3.33684048e-01  4.31449594e-01  7.64554364e-01 -8.86229800e-01]
 [ 3.81368208e-01 -5.14771340e-01 -6.72542025e-01 -8.49691918e-02
   5.35982383e-01  8.66138025e-02  4.07330806e-01 -9.34520087e-01
   9.73019151e-02  2.52383645e-01 -4.58405527e-01  6.67103567e-01
   3.83644852e-01  8.10139014e-01 -1.77415542e-01 -2.34265750e-01
   6.10838936e-01  6.01973076e-01  1.10364628e-01 -3.72615919e-01
   3.99570463e-01 -1.81547854e-01 -7.04481666e-01  3.52017338e-01
  -6.53808453e-01 -5.85197721e-01 -3.15897042e-01  3.20841304e-01
   6.74523921e-01  5.08863257e-01 -2.65990973e-01 -5.36896459e-01
  -8.36429022e-01 -3.70822203e-01  3.09105803e-02  1.37088117e-01
   5.58274014e-01  8.15529762e-01  2.87886194e-01 -5.39565189e-01
  -3.65959926e-01 -4.70736417e-01 -7.80927005e-01 -4.06473704e-01
   4.09885995e-02  2.23443521e-01  3.76766020e-01  4.14277385e-01
   1.62931580e-01 -5.14886013e-01  5.80400715e-01  2.77292563e-01
  -2.04634855e-01 -7.67750231e-01  5.32422498e-01 -7.74308669e-01
  -7.74236610e-01  3.55987747e-01  3.28656411e-01 -5.06351722e-01
   5.03065260e-02  5.79756979e-01 -1.52539965e-01 -4.11580945e-01]
 [ 8.71694445e-01  1.12963668e-01  4.30925545e-02  7.01299984e-01
  -4.68980836e-01 -4.23374854e-01  4.18351556e-01 -7.33196455e-01
  -2.94177548e-01 -6.02076746e-01  4.26751071e-01  7.22128469e-01
   3.35187099e-01  6.26957912e-01  7.83242711e-01  2.26421055e-01
   7.29617958e-01 -1.69959529e-01  3.35867670e-01 -9.52082407e-01
   7.37065533e-01  9.88735575e-01  5.47222626e-01  6.51066493e-01
   5.62354663e-01  6.08126703e-01 -3.59503069e-02  4.92974687e-01
   2.71615347e-01 -9.42267343e-01 -9.00115183e-01  4.31742923e-01
   2.93693208e-01  5.02774277e-01 -6.43038924e-01  1.64385589e-01
   9.92583279e-02 -8.74774553e-01 -2.72633087e-01  5.24672589e-01
   8.06079396e-01  2.61441082e-01 -4.20200828e-02 -7.65346151e-01
  -2.43170846e-01 -8.26733326e-01  9.59258266e-01 -7.92661421e-01
   2.63364811e-01  2.63201725e-01  5.83460037e-01 -7.51959363e-01
   7.00723788e-01  2.94116777e-01 -2.51826734e-01  7.05818765e-01
   8.58304168e-01  9.62427719e-01  8.42517084e-01 -4.59021878e-01
   4.41270910e-01  2.07240243e-01 -9.92149451e-01  1.19790316e-01]
 [ 6.93623982e-01  8.75543498e-01 -6.80171298e-01 -4.11147391e-01
  -1.84334495e-01  5.47620968e-01  7.64198979e-01 -9.26107139e-01
  -3.90028769e-01 -7.96189565e-01  9.70145071e-01 -1.09426292e-01
  -4.97175029e-01  9.31485566e-01 -6.18499749e-02 -3.09430419e-01
  -5.02454829e-01 -5.78146612e-01  1.99858535e-01  2.07651847e-01
   3.10788066e-01  9.48822777e-01  7.67882148e-01  9.39056895e-01
   1.77896628e-01  1.15528794e-01  3.26786649e-01  4.05992159e-01
   7.55616547e-01 -6.86094993e-03  2.73697210e-01  9.62985926e-01
   4.83671891e-01  5.38071960e-01  7.95049342e-01  3.75090405e-01
  -5.34547567e-01 -1.90724351e-01 -8.37863662e-01  6.86353872e-01
  -1.14782339e-01  5.36598947e-01  2.22467385e-01  3.63745812e-02
   9.82133485e-01  7.77523919e-01 -8.67936202e-01 -4.33452917e-01
  -2.76206011e-01  2.13212931e-01 -2.60880221e-01  1.97297666e-01
   4.03265393e-02 -5.40150211e-01 -8.73476547e-03 -3.85406794e-01
   6.93559634e-01 -3.56159348e-01 -4.86132000e-01 -7.04115165e-01
   9.56131803e-01  3.37000930e-01  2.63322118e-01 -9.85970953e-01]
 [-2.66650580e-01 -2.85256875e-01  3.85877708e-01  4.32995827e-01
   7.99579538e-01  9.72219819e-01  4.01725072e-01 -3.75851203e-01
  -3.79715734e-01 -8.85394902e-01  4.64521215e-01  1.45864007e-02
  -7.83964127e-02  2.80135160e-01 -1.45723386e-01 -3.85837421e-02
   3.95370372e-01 -8.16894881e-01  5.24428646e-01 -9.86895299e-01
  -2.78669143e-01 -7.09622964e-02 -3.50365519e-01  3.53675826e-01
   9.36550914e-01 -2.93219640e-01 -1.33511521e-02 -8.69253157e-01
   9.60200789e-01 -4.91496108e-01 -3.38083864e-01 -5.29213368e-01
   6.28656563e-01  5.07044812e-01  3.86252506e-01 -1.99122090e-01
  -6.44664405e-01 -6.77883073e-01 -3.86399719e-01  2.45901068e-01
  -8.45017303e-01 -2.91522023e-01  5.00244477e-01  8.40607741e-01
  -1.58386013e-01  5.78714993e-01  5.66371849e-01  3.82139256e-01
  -4.04924424e-01 -6.54564886e-01 -8.35822645e-02 -1.49094336e-01
  -3.08475982e-01  6.97796151e-01 -8.49102498e-01 -1.83684013e-03
  -7.58720856e-02  3.50170724e-02 -7.82309720e-01  9.81225341e-01
   5.47444012e-01 -9.86878121e-02  1.16157183e-01  3.65916385e-02]
 [-8.29762841e-01  7.88512622e-01 -9.38072171e-01 -5.36989616e-01
  -4.90650525e-02 -3.19535238e-01  4.69453596e-01  3.41240675e-01
   1.36392974e-01  1.02279915e-01 -6.83384987e-01  7.39647040e-01
  -4.00356812e-02  6.37856711e-01 -6.94972598e-01 -8.90504750e-01
   1.85199581e-01  1.10174284e-01 -9.82733013e-01  7.15706146e-01
  -3.51926371e-01 -7.96247831e-01  5.26806870e-01 -9.89279291e-01
   8.09524516e-01 -5.28374306e-02 -4.64416307e-01 -9.12090517e-01
  -7.82778488e-01 -1.27361178e-01 -1.30560547e-01 -8.79414497e-01
  -4.47332966e-01  2.74140397e-01  2.56422779e-01  7.69876881e-01
  -1.35497663e-01 -1.83096870e-02  2.62928959e-01 -5.48524824e-01
  -9.88671999e-01 -6.86621787e-01  5.59240283e-01  3.86074853e-01
  -6.34818486e-01 -6.74207016e-01  6.69813835e-01  9.84992048e-01
  -8.14066605e-01  9.43311585e-01  8.56066699e-01  3.88726676e-01
   3.99506483e-02 -6.40049901e-01  8.03601853e-01 -3.45087943e-01
   9.15124212e-02 -7.02317024e-01  7.12149183e-01  7.71286088e-01
   2.64200691e-01 -3.53914900e-01  8.82251086e-01  4.16461267e-02]
 [ 9.21120500e-01 -8.51408124e-01  1.04917546e-01  9.85302516e-01
   9.05342270e-02 -3.61752212e-01 -6.40949151e-01 -9.88650056e-01
   1.74998521e-01  2.34993098e-01  6.57599858e-01  5.04508174e-01
   8.32922603e-01 -9.31008767e-01  2.00593097e-02 -2.67290323e-01
   5.65418796e-02 -8.07258293e-01  3.11807897e-01 -3.28325800e-01
   2.08500075e-01 -5.43139425e-01  3.42203027e-01  1.85960866e-01
   5.28531446e-01 -6.19866075e-01  6.35478443e-01 -4.12787974e-01
  -5.23790505e-01  2.28716825e-01 -9.09091250e-01 -8.25689636e-04
   2.38674939e-01 -2.69451725e-01  7.12659312e-01 -6.97191995e-02
  -5.05183196e-01 -4.04099646e-01  5.92848572e-01 -6.53998965e-01
   2.87088599e-01 -8.54259711e-02  4.24398395e-01 -9.60312558e-01
  -8.09428688e-01  6.03356028e-01 -7.55265421e-01 -3.19604547e-01
  -2.12085552e-01 -4.05529112e-01 -4.04391809e-01 -6.97796162e-01
   2.38893038e-01 -6.32297155e-01  4.85463493e-01  1.22795385e-01
  -3.55300781e-01  2.90303281e-01  3.68713335e-01 -6.46837045e-02
  -5.99730712e-01  1.55442460e-01  1.32184094e-01 -5.16544512e-01]
 [ 7.90001264e-01  4.66452501e-01  3.05399812e-01  9.82304199e-01
   6.27519975e-01  8.65190693e-01  3.79858730e-01 -2.68549759e-01
   6.03232875e-01 -9.75936375e-01  2.46354315e-01  7.85364477e-02
   9.62923373e-01  1.84943030e-01 -3.59103970e-01  8.25648755e-01
   1.93848007e-01 -1.76908697e-01  1.78518611e-01 -2.50038609e-01
  -3.89993609e-01  5.63391824e-01  9.35095587e-01 -6.35919876e-01
  -7.90326952e-01 -8.79081461e-01  1.58615486e-01  9.10901849e-01
  -3.10284287e-01  2.80408547e-01  4.59257039e-01 -4.63643586e-01
   7.60866724e-01  8.03283945e-01  2.93431318e-01 -2.60741058e-01
   9.32276502e-01  2.66794829e-01  1.38976891e-01 -6.33363073e-01
   3.90185669e-01 -9.61978714e-01 -1.22017834e-01 -2.60882631e-01
   5.37657620e-01  8.36198014e-01  8.25291485e-01  8.47304120e-01
  -2.53580706e-01 -5.40386662e-01  3.27035835e-01 -1.50537836e-01
   4.67608171e-01  5.26679998e-01 -4.63649133e-01  3.00269192e-01
   8.38144925e-01  5.00449595e-01  7.69997120e-01  2.88298502e-01
   6.86275680e-01  2.65779032e-01 -1.74833704e-01 -4.71931981e-01]
 [-8.30556622e-01  3.61187446e-01 -5.51471691e-03  7.56911943e-01
  -2.47939850e-01 -2.03347751e-01 -9.41527066e-01  2.05563994e-01
  -5.56769169e-01  5.99001062e-01 -2.93670141e-01  2.08125413e-01
  -7.83114548e-01 -2.02645226e-01  8.27063335e-02 -6.34139343e-01
   7.46444924e-01 -9.01138939e-02  2.15714348e-01 -2.05929980e-01
  -5.02256162e-01 -3.87245030e-01  1.27643271e-01  2.88870279e-01
  -7.35866697e-01  2.89943999e-02 -6.11531068e-01 -8.47585013e-01
  -4.31938460e-01 -7.95475688e-01 -8.15841575e-01 -8.36949098e-01
   9.61296856e-01 -3.03328321e-01 -6.96662428e-03  4.89189096e-01
   6.14232096e-01 -5.14531116e-01  7.43343794e-01  4.55257224e-01
  -8.25491892e-02  2.03441328e-01 -6.79144133e-02  7.56489804e-01
  -8.29361607e-01 -2.84978806e-01 -6.92515206e-01  1.31776684e-02
   9.98320588e-01 -9.17607548e-01 -3.87761751e-02  5.35181418e-02
  -6.52443722e-01  5.89071475e-01  5.81032313e-01 -2.65031839e-01
  -8.30168425e-01 -1.36526641e-01  4.10101355e-01 -4.45273644e-01
  -1.58787020e-02  6.88525449e-01  7.56201795e-01  6.50316843e-01]]

From hidden layer through output layer:
[[ 0.89604276 -0.0301815  -0.38645833  0.68337957  0.41310051  0.76399146
  -0.48053827  0.50531298  0.29560271 -0.61692388 -0.21375311 -0.72317399
   0.30491981  0.95665352 -0.05863327  0.48957677 -0.34656702  0.58401008
   0.86447639  0.77196949  0.36320872]
 [-0.08466233 -0.08218207  0.4664049  -0.7323586  -0.9378759   0.92344416
   0.0622988   0.3932383   0.31447472  0.10948117 -0.1680303   0.50313998
   0.908272   -0.41205573 -0.66857008 -0.83567107 -0.43981199  0.35652562
  -0.38820034  0.74412182 -0.45788154]
 [-0.13782248  0.52698666  0.13182763 -0.29239122  0.80702346 -0.23235449
  -0.27515298  0.30849302  0.25348146 -0.56319732 -0.1735845   0.52131755
   0.96438815  0.91838786  0.2550123   0.88259626  0.72670712 -0.75454958
  -0.25718839 -0.2592372  -0.22009556]]