From input layer through hidden layer:
[[-1.54544104e-01  9.27625968e-01 -1.84987114e-01  6.30161883e-01
   5.39092599e-01  5.32402014e-01 -7.51506614e-02 -1.52852767e-01
  -4.07715278e-01 -4.32205040e-01  2.29352085e-01 -7.28664074e-01
   1.12570882e-01  4.04845372e-01  6.33970745e-01  6.80903851e-02
  -6.30407981e-01  8.86155353e-01  2.58316330e-01 -8.07099998e-01
   4.39127511e-02  4.35169999e-02 -1.63568672e-01  1.47345720e-01
   4.36590729e-01 -4.55237453e-01  3.39534462e-01 -5.82026527e-01
  -1.69088011e-01  9.49628744e-01  7.60512159e-01 -7.03132794e-01
   3.15611024e-01 -3.44064986e-01 -7.40112942e-01  1.46793044e-01
   4.45418387e-01 -8.88302777e-01 -1.04114081e+00 -2.03248030e-01
  -6.43196835e-01  5.47472376e-01 -6.84473963e-01 -3.20917755e-01
   2.55465747e-01  8.21758758e-03 -8.17301557e-01  3.31236766e-01
  -6.28581579e-01  6.81743111e-01  1.68981588e-01 -7.40331755e-01
  -6.77333612e-01  5.88876071e-01 -6.85728533e-01 -1.35540135e-01
   9.56237204e-01 -3.78679840e-01  8.66979791e-01 -4.86959268e-01
  -7.66075310e-01 -4.04047266e-01 -1.04415862e-01  4.32824668e-01]
 [-3.96719590e-01  1.43630852e-01 -1.07906168e+00  6.89804378e-02
   9.41525445e-01  8.05579672e-01 -9.52697979e-01 -1.18148706e+00
   1.55971440e-02  3.97864412e-01  5.79988753e-02 -5.21425735e-01
  -9.75598762e-01  9.38212546e-01  4.40267427e-01 -6.88972221e-01
  -9.27305751e-01  8.95716006e-01  3.45486514e-01  9.64645809e-02
  -9.10404778e-01  7.41890228e-01 -4.53582492e-01 -5.62909853e-02
  -8.93014581e-01 -1.48949377e-01  2.09941180e-01 -5.01448016e-02
  -7.37108255e-01 -8.99242550e-01 -1.16490102e+00 -2.01916131e-02
  -8.81533794e-01  2.05819331e-01 -3.01091049e-02 -8.12607125e-01
   2.06549387e-01 -1.74095147e-01  6.25191727e-01 -6.19883706e-01
   5.92996384e-01  5.72769184e-01  5.12231123e-01  9.86137348e-01
   1.74609765e-02 -3.58472693e-01  1.25251732e-01  5.10116289e-01
  -5.88340294e-01 -3.71433432e-01  4.99205853e-01  3.15577472e-01
  -1.75886140e-01  6.66225152e-01 -4.01638805e-01 -5.95829069e-01
   7.48243872e-01  6.43882104e-02  5.27514853e-01  6.45181987e-01
   6.48328905e-01 -7.29687064e-01 -7.38519655e-01 -7.97369016e-01]
 [-6.28782520e-03  1.15682209e+00  1.67836155e-01 -1.08764489e+00
  -6.71672101e-01  5.03631830e-02  1.17817056e+00  2.14967926e-01
   1.74258616e-01 -1.03698012e-01 -1.01122685e-01  3.49375202e-01
   1.95881679e-01 -3.76567299e-01 -1.12490603e+00  5.63740364e-01
   8.10004809e-01  1.04512287e-01 -8.69843916e-01 -4.13668273e-01
  -2.04228842e-01  3.74871022e-01 -2.24758932e-01 -2.14895503e-01
   3.29988932e-01  3.21440136e-01  2.88149020e-01  6.99961038e-01
   5.44936849e-02 -2.49050162e-02 -3.94256698e-01  5.45042704e-01
   2.43215303e-01  6.09104533e-02  4.22982165e-01  9.27351581e-01
   5.79669444e-01  4.57881742e-01 -6.75861059e-01 -6.73217215e-01
  -8.53049796e-01 -1.85377659e-01 -2.87409127e-02 -6.56705693e-01
  -7.88641989e-01 -5.42044755e-01 -9.25426184e-01  6.97576478e-01
   2.84529465e-01 -8.54921490e-01  6.19984535e-01 -7.13670149e-03
   1.90808883e-02  3.06730541e-01 -2.62879134e-01  6.34406367e-01
  -1.31293308e-02  1.20404218e+00 -2.30167370e-01  2.72368456e-01
   3.98323908e-01 -2.70137363e-01 -5.31611995e-01 -1.03526955e+00]
 [-1.42544208e-01 -9.51881778e-01  6.69379135e-01  3.60591207e-02
  -3.09722109e-01 -1.06093029e+00  3.72460304e-01 -1.13519817e+00
   8.16209191e-01 -4.11173270e-01  2.01249763e-01  4.28064864e-01
   5.13104068e-01 -3.56011615e-01  4.41661641e-01 -1.01735009e+00
  -2.32531976e-01 -3.06033143e-01 -5.47192033e-01 -2.56054772e-01
   3.50985056e-01  8.55912277e-01  6.26028850e-01  4.98897545e-01
   7.56741595e-01  7.11397285e-01 -3.47867656e-01  1.29713202e-01
  -2.93231695e-01  8.14442931e-01 -5.96088399e-01 -1.04833698e-01
   3.77521751e-02 -1.07869971e-01  1.25569555e+00 -6.34916626e-01
  -7.58192173e-01 -1.92312500e-01  4.91423654e-01 -1.51387035e-01
  -4.66604090e-01  5.87180310e-01  7.50533953e-01 -1.53787000e-01
   3.20307641e-01 -2.24561915e-01  6.96728941e-01 -1.18841246e-01
   2.27973804e-01 -8.06586524e-02 -2.38516934e-01  5.15557303e-01
  -5.73001547e-01 -8.23605840e-01 -9.87490972e-01  1.50089973e-02
  -6.73177383e-01  4.44951362e-01  6.91514201e-02  2.56626938e-01
  -2.25855824e-01 -5.02006059e-01  6.55291908e-01  1.68943701e-01]
 [ 9.18899313e-01 -7.49166637e-01 -1.28597917e+00 -6.66140258e-01
   1.22364764e-01  4.51780876e-01  7.22801822e-01  9.92911413e-01
  -6.66550234e-01 -4.65834508e-01  8.40769284e-01 -9.29935723e-01
   2.45430152e-01  1.05605365e+00  1.38694883e-01  8.84897299e-01
   5.69829705e-02 -8.64629219e-01  6.64892339e-01  7.87236481e-01
   2.10459229e-01 -1.30993806e-02  6.68085774e-01  1.47740342e-01
   1.51080772e-01 -8.14239625e-03  8.98033927e-01  9.16444672e-01
   4.80475409e-01 -7.47926030e-01  2.11158118e-01 -5.44843673e-01
  -9.62982640e-01 -1.95453336e-01 -6.81701676e-01  1.33243497e-01
  -5.04938749e-01 -1.19010043e+00 -8.37763952e-03  6.91897067e-01
   3.16703635e-01 -3.18778967e-01 -2.32815906e-01 -2.40903438e-01
   7.85745776e-01  7.61439670e-01 -1.94506065e-01  6.28624471e-01
  -3.79886402e-01  8.77973754e-01  2.23246392e-01 -3.67034765e-01
  -6.89319930e-02 -5.49333309e-01  3.38148655e-01  2.44634975e-01
   9.73569806e-01 -5.03388685e-01 -6.14418185e-01  7.87364719e-01
  -5.07970046e-02  1.02057299e+00  4.53860836e-01 -1.25078901e-02]
 [-4.72996686e-01  2.93953298e-01 -7.83645256e-01  8.85485743e-01
  -3.15933276e-01  1.31614996e-01  1.71580428e-01  7.25868983e-02
   9.07375611e-01 -5.67379566e-01  3.45118370e-02  8.26351449e-02
  -2.51981802e-01  3.89609151e-01  5.13493762e-01 -8.06757050e-02
  -8.66755204e-01  3.43416557e-01 -7.03544030e-01  4.91086295e-01
  -8.80027783e-01  1.24629137e-01 -1.46200267e-01  7.95879781e-01
   1.92276688e-01 -3.05719728e-02 -3.18729978e-01 -4.37055583e-01
   8.88136902e-02  2.40771320e-01 -2.94412856e-01  1.22395868e+00
  -7.29213022e-01  2.04287660e-02 -8.00981811e-01 -1.05818196e+00
  -3.56388924e-01 -2.82541588e-02 -3.70493079e-01  8.75465370e-02
  -4.04750078e-01  5.81780826e-01 -9.30943961e-01 -8.88673017e-01
   4.86122313e-01 -3.23030119e-01 -8.36894765e-01 -5.96406720e-01
  -2.65586376e-01  9.31773858e-01 -9.82447129e-01 -6.05367528e-01
   9.63940536e-01  2.29550183e-01  2.68949299e-01 -8.68208418e-01
   7.66350347e-01  4.32366279e-01  8.26008902e-02 -9.91349032e-01
  -8.38698594e-01 -3.44210790e-02  5.23895748e-01  1.01804716e+00]
 [ 8.06768302e-01  2.30059840e-01  9.94210328e-01  4.57081538e-01
   1.71890701e-01 -2.73601238e-01 -7.18628690e-02  1.05670098e-01
   6.79626569e-01 -7.85937001e-01  6.75118114e-01  6.63440357e-01
  -2.28290040e-01  6.97607856e-01 -2.09060776e-01  3.60070389e-01
   7.71602713e-01 -6.06791515e-01 -4.43851118e-01  1.57368448e-01
  -2.53996061e-01 -1.04170508e+00 -3.07012746e-01 -3.79081265e-01
   3.65561491e-02 -5.17707161e-01  5.43016641e-01 -4.46781059e-01
   9.18771953e-02 -3.34849937e-01  3.53900458e-01 -5.93361315e-01
   9.59407887e-03  9.25352670e-01 -3.95508243e-01  5.97943770e-01
   6.66828732e-02  3.85452093e-01  1.41952919e-01 -9.99016150e-01
   3.14582942e-01  6.18031450e-01  4.08331849e-01 -3.87853635e-01
  -7.06094762e-01 -2.34782968e-01  9.06073619e-01 -6.10172818e-01
   4.74159419e-04 -3.39715096e-01  2.32270938e-01  6.21848007e-01
   1.45890744e-01  7.13967279e-01 -6.24691912e-01  3.52169918e-01
  -2.82561560e-01 -7.70787994e-02  1.85940427e-02 -7.27875144e-01
  -3.23588527e-01  1.66280037e-01 -1.26354639e+00  6.92313255e-01]
 [ 2.85166968e-01  5.00250382e-01 -6.62139025e-01  5.92217408e-01
  -9.39281732e-02  1.04669109e+00 -2.53164223e-01  7.21897764e-01
  -5.63809499e-01  4.28213435e-02 -7.92382415e-01  9.40041463e-01
   4.23169047e-01  6.37227181e-01  2.49227487e-01 -4.73449567e-02
  -1.94791990e-01 -9.23170199e-01 -6.78227948e-01 -9.48520589e-01
   8.98468033e-01 -4.16487173e-01  1.15415938e-01 -2.82480793e-02
   2.36924521e-01  7.21373629e-02  2.92153766e-01 -5.01511773e-01
  -7.71960061e-01 -7.32576560e-01 -5.35550586e-01  8.21928232e-01
   1.80924954e-02  3.74291617e-01  5.72905412e-01  5.60979898e-01
   6.49362814e-01 -2.76170327e-01  4.98747017e-01  9.45526307e-02
   4.52858637e-01  9.26801046e-02  7.25035403e-01 -1.02040680e+00
  -7.77484867e-01  4.62158687e-02 -2.05324430e-01 -9.99306964e-01
   9.24760311e-01  3.74844422e-01 -2.82486676e-01  1.89930465e-01
  -4.15964424e-01 -8.03677771e-01 -5.86084941e-01 -5.40720353e-01
   7.26027339e-01 -1.15978106e+00  3.06294954e-01  2.33441753e-01
   4.14807907e-01  9.78410665e-01  5.21632155e-01  6.44993632e-01]
 [-1.82011423e-01  9.93805179e-01 -4.32512007e-01 -9.65243924e-02
   8.11115525e-02  4.53499806e-01 -3.52968527e-01  7.83626670e-01
  -4.28439360e-01  7.80942624e-01  4.31821059e-01 -6.11155100e-02
  -5.35099499e-01  5.82309052e-01  9.11126221e-01  1.05990265e+00
   2.19358045e-01 -7.73707782e-01 -8.49742131e-01 -3.63295750e-01
  -1.43877082e-01 -3.46822691e-01 -3.94934542e-01  4.37757245e-01
  -7.89042450e-01 -3.16896659e-01  3.73496692e-01 -4.09073849e-01
   1.49842291e-01  3.18672078e-01  2.30534624e-01  7.35644606e-01
   6.50016548e-01 -6.19638805e-01  2.36862187e-01  7.43985099e-01
  -8.71399229e-02 -3.82395144e-01  2.24030775e-01 -9.78428374e-01
   1.78467191e-01 -6.09816995e-01  4.82422089e-01  4.33770646e-01
   2.00852747e-02 -3.69682097e-01  6.41087725e-01 -9.32295294e-01
  -8.43668367e-01 -1.62186484e-01 -9.35862736e-01  1.62420473e-01
  -7.55561505e-01 -7.79108055e-03 -4.92735615e-01  2.94012684e-01
   2.30986739e-01  4.58418401e-01  6.96752115e-01 -2.44223705e-01
  -7.73457375e-01 -3.84605813e-01  7.00533298e-01  1.62114921e-01]
 [-2.59979524e-01  9.39070750e-01 -1.37686697e-01  8.52944749e-01
   8.53966555e-01 -8.55027517e-01 -2.17543739e-01 -2.48598798e-01
   9.23654096e-01  3.91428093e-01  1.75177334e-01 -7.00350673e-01
   2.61963622e-01  3.74752680e-01 -4.01024980e-01 -2.39290039e-01
   4.58956420e-02 -6.27229778e-01 -7.24645312e-01 -1.00865129e+00
   4.86934625e-01  1.01440039e+00  5.16059547e-02  5.73698538e-01
  -4.56303726e-01 -2.97486309e-01  5.38473886e-01 -4.72943960e-01
  -5.88055673e-01 -4.53628242e-01  8.03552755e-01  7.70181463e-01
   4.78292730e-01  8.37896697e-02 -1.97761035e-02  6.12144701e-01
   3.94576504e-01 -4.43915610e-01  2.61758794e-01  3.46040563e-01
   2.38577686e-01  6.09880663e-01  9.43568715e-01 -7.68222420e-01
  -2.99921608e-01 -6.87436415e-02  9.59159177e-01  6.78418556e-01
   3.53516442e-01  8.37184612e-01 -7.48668221e-01 -4.51331350e-01
  -1.01819042e+00 -7.32964475e-01  7.62600601e-01  6.04327979e-01
  -5.44397736e-02  7.22286045e-01  1.01067153e-01 -6.29239178e-01
  -9.36010634e-01 -8.92900275e-01  4.09367768e-01 -1.21405120e+00]
 [-2.23900420e-01  6.77994249e-02  6.97187212e-01 -4.22853276e-01
   3.15800188e-01 -8.16449482e-02 -8.01220525e-01  9.22948160e-01
  -1.27234170e-01 -2.46977259e-01 -2.71384641e-01 -4.43961923e-01
   2.41413443e-01  3.58253767e-01 -1.10122300e+00  4.46849286e-01
   1.68910698e-02  4.88152691e-02  4.74249635e-01 -2.75286627e-01
  -2.68655319e-02 -1.38702630e-01  6.17130321e-01 -8.87337809e-01
   5.46143498e-01  9.03111694e-01  6.76559312e-01  7.66409843e-01
  -9.65977390e-02  9.58168850e-02  6.51641900e-01  5.32097611e-01
   1.30830111e-01  1.14015199e-01 -4.14449850e-02  6.93292740e-01
  -1.00909324e+00  2.17555659e-01  8.20550849e-01  8.96566799e-02
   2.72175866e-01 -2.04250248e-01 -8.18302009e-01  5.13205413e-01
  -7.55820362e-02  4.09278292e-01 -4.50575694e-01  1.56036046e-01
   4.20751605e-01 -8.23536923e-01 -4.36316399e-01 -1.41309171e-01
  -6.28205211e-01 -8.46361275e-01  4.37154131e-01 -3.35897162e-01
   2.17958726e-01  1.00422255e+00  2.70974831e-01  2.59713829e-01
   4.22985622e-01 -6.10225510e-01  1.00039981e+00  1.02200933e+00]
 [ 6.99819253e-01 -1.10221294e-01  2.34253184e-01  3.66347852e-02
   2.20759108e-03  9.38754931e-02  5.58272609e-01 -7.52294753e-01
   2.29817088e-01  8.86866883e-01 -2.63291870e-01 -3.82413190e-01
   2.01270397e-01  4.06368430e-01 -1.88923247e-01  1.20354160e-01
  -2.46035110e-01  5.29451999e-01  8.20446393e-02  5.87082377e-01
  -5.24855884e-01 -6.13951091e-01  5.53496160e-01 -5.85321077e-01
   9.66311301e-01 -7.38622456e-02  2.33795118e-01 -8.00852351e-01
  -2.79017658e-01  5.52314765e-01  3.15683437e-01  6.71228838e-01
  -7.73535958e-01  6.67109415e-01 -5.44180418e-01  3.29477813e-01
  -6.51579812e-01 -6.10360978e-01  7.16590268e-01  2.84272335e-01
  -9.53584802e-01 -1.04284250e+00  1.03555377e+00 -9.07324027e-01
   2.59545667e-01 -1.43428100e-01  2.39275214e-01 -7.19760671e-01
  -1.80853551e-02  7.44432051e-01  4.10429412e-01  5.19943630e-01
  -2.23794022e-01  2.91361228e-01 -8.72174787e-01  1.23294439e-01
  -2.80830395e-01  7.98271780e-01 -5.78710177e-01  9.17628964e-01
  -1.02305359e+00 -8.69617989e-01  7.91118796e-01 -1.12639426e-01]
 [-1.79322957e-01 -8.01170175e-01 -5.34235604e-01 -4.87860277e-01
   6.16057189e-01 -6.60569108e-02  7.14562450e-01 -2.17577368e-01
   6.05800198e-01 -4.16490199e-01  9.65049954e-01  8.21277026e-01
  -5.23638378e-01 -8.48989355e-01 -7.37059292e-01  1.21517488e-01
  -2.61613727e-01  3.23291908e-01  1.93490714e-01  8.91908128e-01
   7.30607276e-01 -9.81590513e-01  3.53924519e-01  5.19102734e-01
   1.07346379e+00  3.15889975e-01 -1.00818163e-01  8.01994123e-02
   9.72911988e-01 -1.34052427e-01 -4.30182026e-01  5.39196534e-01
   9.04451962e-01 -1.20090056e-02 -8.72286852e-01  9.87472094e-03
   7.27249517e-01 -6.28469507e-02  2.86037223e-01  6.68893921e-01
  -6.04205222e-01  9.64184752e-01  3.04021550e-01  6.08061348e-01
  -6.25591463e-01 -3.74424150e-01  6.72705626e-01  5.92887280e-01
  -2.50203274e-01 -2.94466373e-02 -7.43289135e-01 -2.69205944e-01
   5.26172663e-01 -8.78275398e-01 -4.52742797e-01 -5.65862059e-01
   4.70908253e-01 -2.54808601e-01 -8.76751664e-01 -9.63008173e-01
  -1.00673569e+00 -7.27153504e-01 -4.64682891e-01 -8.58528751e-01]
 [-4.02918461e-01  4.34378274e-01 -7.49540899e-01 -1.03815941e-01
  -1.52121131e-01 -1.32479302e-01  4.49559077e-01 -4.26734733e-01
  -2.59710089e-01 -3.21393495e-01  4.96060798e-01 -1.25042919e-01
   4.91529235e-01 -6.33941615e-01  2.84259818e-01  5.13523080e-01
   2.99562212e-01  3.58051054e-01 -4.09306144e-01 -8.80324444e-02
  -3.70271223e-01 -9.01056080e-01 -8.96536068e-01  1.99635205e-01
  -5.36111996e-01 -7.23655931e-01  4.03450608e-01  7.02600372e-01
   7.43857411e-01 -4.98677596e-01 -8.74445886e-01  9.00432847e-01
  -8.59962376e-01  2.15287761e-01 -2.22612520e-01  8.00901125e-01
  -2.51283750e-01 -4.05568405e-01  6.86541109e-01  4.37658030e-01
  -9.64149522e-01  7.67669131e-01 -9.20694641e-01  4.61486151e-01
  -5.39957680e-01  1.64270830e-01  5.89241255e-02  9.60556771e-01
  -8.04641766e-01 -2.32269265e-01 -7.34803225e-01 -1.62644439e-01
  -5.39410893e-02  7.40918810e-01 -2.58956994e-01  7.84514141e-03
  -7.21827002e-02 -6.09990001e-01  1.18315682e-01  9.85100249e-01
   4.01938757e-01 -6.06568954e-02 -8.65321987e-01 -3.20011684e-01]
 [ 8.64536726e-02 -5.40316052e-01  2.68781950e-01 -4.81985705e-01
   7.85145659e-01 -4.64521742e-01 -4.74540927e-01 -1.09046258e+00
   8.56021567e-01 -9.52224241e-01 -8.34045179e-01  7.69271474e-01
  -5.75091162e-01  8.23411218e-01 -7.37338500e-01 -4.62313928e-01
  -5.61216403e-01 -7.19538653e-01  2.20142287e-01  8.29121119e-01
  -5.83177513e-01  7.78042420e-01  3.04601371e-02  9.18056002e-01
  -7.96816046e-01  3.83472368e-01 -1.40515264e-01  7.47317303e-01
  -3.35828036e-01  3.06025171e-01  7.71274274e-01 -3.96038668e-01
  -6.04852546e-01  4.75853320e-01  7.53182864e-01 -1.99089811e-01
  -7.72508598e-01 -1.60881773e-01  5.97141852e-01 -2.15873405e-01
  -6.97683310e-01  1.05184763e+00  2.25227994e-01 -7.24140685e-01
   5.71138854e-01 -2.43909872e-01  6.73310073e-01  5.55054709e-01
   1.00198883e+00 -7.16039723e-01  1.11073387e-01 -7.91402340e-01
  -3.87740911e-01 -3.52447223e-01  5.09495693e-01  8.36085063e-02
  -7.11456229e-01  2.63092905e-01  7.64095748e-01 -9.42987234e-01
   4.10813578e-01 -1.67882527e-01 -9.32979878e-01  3.49068120e-01]
 [ 4.30683565e-01  9.99970742e-02  7.86502152e-02  7.11570036e-01
  -4.74026595e-01  9.60835745e-02  5.89429163e-01  2.62366486e-01
   8.14632049e-01 -7.23780996e-01 -2.27968125e-01 -5.04479915e-01
   8.68639997e-01  5.24817829e-01  2.26729937e-01 -4.56370972e-01
   4.36835666e-01 -3.03622200e-01  2.17397367e-01 -6.85657946e-01
   3.76696763e-01 -6.85556263e-01  3.80124936e-01  7.10597634e-02
   6.50945101e-01  5.02768953e-01  8.66536080e-01 -5.60450145e-01
   5.97478594e-01 -4.03823596e-01 -2.34431279e-01  9.19714591e-01
   2.17895423e-01 -3.13960503e-01  2.25739788e-02 -4.24091655e-01
  -6.58425468e-01 -6.73665077e-01 -7.80299309e-01 -5.32431437e-01
   5.05342625e-01  4.33847185e-01 -3.47836589e-01 -3.25693410e-01
   5.55127981e-02 -3.28407204e-01  1.00469148e+00 -4.60718248e-02
   6.26444362e-01 -1.07765525e+00 -9.19443863e-01 -2.69097752e-01
  -1.94116318e-01 -4.34164944e-01  1.13843858e+00  3.96133318e-01
  -8.14047279e-01 -2.42542194e-01  3.12022036e-02  7.00082264e-01
   2.77526143e-01  3.89574790e-01  3.38158004e-01  1.18944029e+00]
 [ 8.69470653e-01 -8.52249480e-01 -7.15193429e-01  8.56373969e-01
  -1.94703310e-01 -4.71296675e-01 -4.20998264e-01  4.27176428e-01
  -4.32064927e-01  8.13228696e-01  2.29764869e-01  2.22473953e-01
   2.20026143e-02  9.49064396e-01 -8.64715796e-01  8.63781058e-02
   8.99909872e-01 -8.03701901e-01  1.10684616e+00  9.19047832e-01
  -5.83446803e-02  4.56717600e-01  1.01749524e+00  7.83569440e-01
   1.51917875e-01 -3.29960320e-01 -7.47516580e-01  5.46332146e-01
  -1.11384317e-02 -5.26698950e-01 -1.11434221e+00  7.39122917e-01
  -9.83246967e-02 -1.00507107e+00  3.43019759e-01  8.06429444e-01
   7.18482094e-01  1.44386484e-01  4.50112002e-01 -8.34737886e-01
  -6.64667380e-01 -1.10734376e+00 -7.05171558e-01  1.97257032e-02
  -2.67803179e-01 -4.99358342e-01 -3.52050871e-01 -5.50256196e-01
  -8.41821893e-01  7.71038760e-01  1.54185654e-01 -3.46391226e-02
  -3.08783741e-01  4.69853819e-01  8.00729487e-01 -5.39260629e-01
  -7.91801161e-01  4.24743845e-01 -8.61688129e-01 -2.21302558e-01
  -9.82990863e-02 -7.64641180e-01 -3.50354572e-01  4.09743689e-01]
 [-7.33673765e-01 -1.16732233e+00  1.77871913e-01 -5.16669565e-01
   7.90140148e-01  3.32202668e-01 -1.37063238e+00  3.92762254e-01
  -4.48629342e-01 -6.05934121e-01  5.47534969e-01  9.99706294e-01
  -1.68195460e-01 -6.55122764e-01  2.69524096e-01  2.10818082e-01
  -2.69841193e-01  8.91452072e-01 -4.70202250e-01 -5.73770330e-01
  -1.26268091e-01 -1.31512627e-01 -5.56505196e-01 -2.50681687e-01
  -5.74392265e-01 -5.55800145e-02  9.19707151e-01 -4.86087742e-01
  -6.25060552e-01 -2.92269533e-01  3.05644120e-01  7.17625272e-01
  -9.36966799e-01  4.11982894e-01 -3.19691213e-01  1.85473612e-02
   1.05450111e+00  2.26463066e-01 -5.53355625e-01  7.12164469e-01
   3.34260354e-01 -1.10122991e+00 -9.93789717e-01  1.14499148e+00
   4.83079252e-01 -2.70505652e-01 -7.30253842e-01 -2.98671135e-01
  -2.21309656e-01 -5.51219699e-01  2.65841833e-01  8.91199088e-01
   1.02700143e+00  1.00448694e+00  7.92372303e-01 -7.28419201e-01
  -8.97901053e-01  2.74090283e-01 -2.27503516e-01 -3.32705634e-01
   6.16836903e-01  6.69454529e-01  7.99973451e-01 -6.57869094e-01]
 [-7.72583040e-01  7.67208275e-01  8.04754078e-01  5.17611238e-02
   3.83189717e-01  7.59346511e-01 -3.27553413e-01 -1.52000416e-01
   5.84097324e-01 -8.85058809e-01  9.65844084e-01 -7.16155141e-01
   4.54412718e-01 -8.48795858e-02  2.53724931e-01  4.75329528e-03
   6.43829202e-01 -5.68320468e-02 -5.70468837e-02  1.20397674e-01
   7.35150652e-01  1.78114852e-01 -2.25032325e-01  8.66664396e-01
   7.82378484e-01 -3.00310106e-01  1.94831932e-01  2.87025087e-01
  -4.36151222e-01 -1.01480880e+00  7.58089924e-01  5.99974809e-01
  -2.11938268e-01  4.19440740e-01 -2.36919467e-01 -8.48004533e-01
   8.06554699e-01 -4.42227564e-01 -8.98113543e-01 -5.57657847e-03
   2.48101505e-01  1.90322686e-02 -2.93346746e-01  6.00047459e-01
   7.97663352e-01  6.26015554e-01 -2.63627292e-01  3.33580590e-01
  -8.32994066e-01 -2.14714170e-01 -3.87261112e-01 -8.85075684e-01
  -1.42476278e-01  8.43036623e-02  8.79733244e-01 -1.05286997e+00
   6.46580615e-01  1.06424154e-01 -9.49352826e-01 -6.37128654e-01
   6.05760287e-01  9.82136271e-01  5.86498700e-01 -5.80356024e-01]
 [-3.20054425e-02 -8.72754395e-01 -8.31685190e-01  6.26034265e-01
  -3.88005112e-01 -8.19389129e-01 -1.78001466e-01  8.47123007e-01
   5.62600908e-01  6.49199607e-01 -4.26466694e-01 -3.44570721e-01
  -7.24759829e-01  6.64779876e-01  6.45819856e-03 -2.67038353e-01
   5.80572411e-01 -4.38356651e-01 -7.32502022e-01 -1.54414793e-01
  -8.54313521e-03 -3.63896852e-01  5.24359972e-01 -1.28980197e-01
  -7.54558300e-02 -6.40589151e-02  5.68702809e-01  4.93357933e-01
  -1.91981817e-01  5.67860150e-01 -1.01052859e-01  6.56310584e-01
  -8.77326665e-01 -8.96848803e-01 -2.23714695e-01 -4.99849703e-01
   4.60880916e-01 -6.31932441e-01  7.25321510e-01 -8.33117081e-02
  -6.85506521e-01 -8.33111161e-01 -4.51389356e-01 -4.89087052e-01
  -7.10287411e-01  5.20816703e-01 -5.50908892e-02 -6.78773813e-01
   4.34910637e-01 -8.59553480e-01  6.09822955e-01  3.25962048e-01
   4.09803916e-01 -1.45064384e-02  5.05037604e-01  3.63064333e-01
  -6.41690602e-01  1.43085710e-01  7.34950561e-01 -4.71845923e-01
  -5.76697619e-01  7.77552305e-01 -2.57622152e-01  5.23806980e-01]]

From hidden layer through output layer:
[[-1.55928407e+00 -1.18914049e+00  4.09495633e-01 -1.55720278e+00
   7.60404003e-01 -1.14126329e+00  4.23128224e-01  7.43985418e-01
  -8.46570944e-01 -8.02104822e-01 -6.98134260e-01  6.95553012e-01
   8.88710793e-01  1.11749197e+00  2.21663949e-01  1.43431412e+00
  -3.21550786e-01 -1.25091721e+00  1.09384975e+00 -5.48668777e-01
  -7.41871862e-01]
 [-9.11201423e-01 -6.30698768e-01  4.44517217e-01  2.81504704e-01
   1.13542940e+00  2.66622424e-01  1.26698857e-01 -1.54841646e+00
  -2.53518416e-01  1.89851734e-01  9.65484954e-01 -1.08130712e+00
   4.18986590e-01 -2.90008549e-01  1.05410234e-01 -1.23592379e+00
  -1.41875957e+00 -1.32814635e+00 -1.01155352e+00  1.79615597e+00
  -1.46449249e+00]
 [-9.45500128e-01  5.14515181e-01 -5.26276915e-01 -1.77108329e+00
  -2.63510430e-04  8.17585652e-01 -5.40147959e-01 -6.38382430e-01
   4.72816397e-01  7.56805514e-01 -1.22486690e+00 -1.79772133e+00
  -2.20187070e-01 -6.05314849e-01  2.27856871e-01 -1.52838415e+00
  -1.57814519e+00  4.54960062e-01  1.13503297e+00 -6.13683272e-01
   9.87229927e-01]
 [-9.31052598e-01 -7.32202169e-01  9.09545834e-01  8.08974291e-01
  -1.09995655e+00 -1.33624328e+00 -1.68349689e+00  1.80248741e+00
  -1.00451127e+00  3.24793697e-01  6.16033386e-01 -8.32173710e-01
   4.47265607e-01 -3.95436371e-01 -1.95834989e-01  4.96273836e-02
  -1.31341117e+00  1.09529034e+00 -1.00761133e+00 -1.17299021e+00
  -8.41873605e-01]
 [-1.00993889e-01  3.82863365e-01 -1.67342177e+00 -8.50650486e-01
  -1.77221020e+00 -7.04126816e-02  6.16959585e-01  1.07253261e+00
  -2.11157426e-01 -2.36358176e-01 -1.30986939e+00  2.19346189e-01
  -1.76055445e-03 -3.32960370e-01 -7.15910603e-01 -1.87205067e+00
   1.34087102e+00 -1.60907080e+00  7.25882973e-02  1.48316684e+00
  -2.17473413e-01]
 [-2.06647443e-01 -1.69990929e+00  3.63077023e-01  1.19180383e+00
   3.76905864e-01  1.15038177e+00 -1.81304698e-01  6.13980688e-01
  -3.99880156e-01 -6.06226631e-01 -1.43708080e+00 -1.05736185e+00
  -1.89836322e+00  2.23508833e-01  7.66631113e-01 -2.96210810e-02
  -1.39721884e-01 -6.49126160e-01 -1.27863422e+00  3.70227211e-02
   5.13506870e-01]
 [-9.13936017e-01 -1.06927385e+00 -1.90633027e+00  7.20152820e-01
   2.02436895e-01 -6.54251862e-01  2.83836702e-01 -1.79547827e-01
  -2.29314598e+00 -5.75217369e-02  4.60849493e-01  1.26082898e+00
  -2.09569127e-01  1.15519557e+00  2.95151664e-01 -6.68966005e-01
   4.31685242e-01  1.60236294e+00 -1.61755315e+00  5.59584443e-02
   2.45281639e-01]]